<?xml version="1.0"?>
<opencv_storage>
<stage9>
  <maxWeakCount>5</maxWeakCount>
  <stageThreshold>-1.8506722450256348e+000</stageThreshold>
  <weakClassifiers>
    <_>
      <internalNodes>
        0 -1 10288101 -8.9555624872446060e-003</internalNodes>
      <leafValues>
        5.7638889551162720e-001 -7.6941603422164917e-001</leafValues></_>
    <_>
      <internalNodes>
        0 -1 70160 5.5346108973026276e-002</internalNodes>
      <leafValues>
        -7.0996403694152832e-001 3.2839316129684448e-001</leafValues></_>
    <_>
      <internalNodes>
        0 -1 5969274 -1.9871507902280428e-005</internalNodes>
      <leafValues>
        -8.7149190902709961e-001 2.5940075516700745e-001</leafValues></_>
    <_>
      <internalNodes>
        0 -1 9253498 -4.5730543206445873e-005</internalNodes>
      <leafValues>
        2.4428020417690277e-001 -9.1835594177246094e-001</leafValues></_>
    <_>
      <internalNodes>
        0 -1 5670154 3.5721645690500736e-003</internalNodes>
      <leafValues>
        2.5591945648193359e-001 -9.5486211776733398e-001</leafValues></_></weakClassifiers></stage9>
</opencv_storage>
